digraph Tree {
node [shape=box] ;
0 [label="partner <= 0.5\ngini = 0.6782\nsamples = 10694\nvalue = [4298, 89, 607, 1925, 3775]"] ;
1 [label="scrp <= 0.5\ngini = 0.5963\nsamples = 7538\nvalue = [4298, 89, 607, 1925, 619]"] ;
0 -> 1 [labeldistance=2.5, labelangle=45, headlabel="True"] ;
2 [label="euthanasia <= 0.5\ngini = 0.5291\nsamples = 6921\nvalue = [4298, 89, 607, 1925, 2]"] ;
1 -> 2 ;
3 [label="months_alive <= 26.25\ngini = 0.4435\nsamples = 6314\nvalue = [4298, 89, 0, 1925, 2]"] ;
2 -> 3 ;
4 [label="weeks_alive <= 0.5577\ngini = 0.1909\nsamples = 2523\nvalue = [2260, 65, 0, 197, 1]"] ;
3 -> 4 ;
5 [label="died_pc <= 0.83\ngini = 0.4395\nsamples = 46\nvalue = [0, 31, 0, 15, 0]"] ;
4 -> 5 ;
6 [label="gini = 0.2907\nsamples = 17\nvalue = [0, 3, 0, 14, 0]"] ;
5 -> 6 ;
7 [label="gini = 0.0666\nsamples = 29\nvalue = [0, 28, 0, 1, 0]"] ;
5 -> 7 ;
8 [label="in foster <= 0.5\ngini = 0.1619\nsamples = 2477\nvalue = [2260, 34, 0, 182, 1]"] ;
4 -> 8 ;
9 [label="gini = 0.1491\nsamples = 2458\nvalue = [2260, 15, 0, 182, 1]"] ;
8 -> 9 ;
10 [label="gini = 0.0\nsamples = 19\nvalue = [0, 19, 0, 0, 0]"] ;
8 -> 10 ;
11 [label="rto_pc <= 23.79\ngini = 0.5032\nsamples = 3791\nvalue = [2038, 24, 0, 1728, 1]"] ;
3 -> 11 ;
12 [label="rto_pc <= 1.475\ngini = 0.4383\nsamples = 1576\nvalue = [1080, 17, 0, 478, 1]"] ;
11 -> 12 ;
13 [label="gini = 0.0\nsamples = 172\nvalue = [172, 0, 0, 0, 0]"] ;
12 -> 13 ;
14 [label="gini = 0.4657\nsamples = 1404\nvalue = [908, 17, 0, 478, 1]"] ;
12 -> 14 ;
15 [label="weeks_alive <= 17.5481\ngini = 0.4945\nsamples = 2215\nvalue = [958, 7, 0, 1250, 0]"] ;
11 -> 15 ;
16 [label="gini = 0.499\nsamples = 1083\nvalue = [596, 5, 0, 482, 0]"] ;
15 -> 16 ;
17 [label="gini = 0.4374\nsamples = 1132\nvalue = [362, 2, 0, 768, 0]"] ;
15 -> 17 ;
18 [label="gini = 0.0\nsamples = 607\nvalue = [0, 0, 607, 0, 0]"] ;
2 -> 18 ;
19 [label="gini = 0.0\nsamples = 617\nvalue = [0, 0, 0, 0, 617]"] ;
1 -> 19 ;
20 [label="gini = 0.0\nsamples = 3156\nvalue = [0, 0, 0, 0, 3156]"] ;
0 -> 20 [labeldistance=2.5, labelangle=-45, headlabel="False"] ;
}